digraph Tree {
node [shape=box, style="filled, rounded", color="black", fontname=helvetica] ;
edge [fontname=helvetica] ;
0 [label="petal width (cm) <= 0.75\ngini = 0.67\nsamples = 95\nvalue = [53, 46, 51]\nclass = setosa", fillcolor="#fefcfb"] ;
1 [label="gini = 0.0\nsamples = 33\nvalue = [53, 0, 0]\nclass = setosa", fillcolor="#e58139"] ;
0 -> 1 [labeldistance=2.5, labelangle=45, headlabel="True"] ;
2 [label="sepal length (cm) <= 6.25\ngini = 0.5\nsamples = 62\nvalue = [0, 46, 51]\nclass = virginica", fillcolor="#f3ecfc"] ;
0 -> 2 [labeldistance=2.5, labelangle=-45, headlabel="False"] ;
3 [label="sepal length (cm) <= 5.95\ngini = 0.35\nsamples = 30\nvalue = [0, 35, 10]\nclass = versicolor", fillcolor="#72eca5"] ;
2 -> 3 ;
4 [label="petal length (cm) <= 4.85\ngini = 0.17\nsamples = 15\nvalue = [0, 20, 2]\nclass = versicolor", fillcolor="#4de88e"] ;
3 -> 4 ;
5 [label="gini = 0.0\nsamples = 14\nvalue = [0, 20, 0]\nclass = versicolor", fillcolor="#39e581"] ;
4 -> 5 ;
6 [label="gini = 0.0\nsamples = 1\nvalue = [0, 0, 2]\nclass = virginica", fillcolor="#8139e5"] ;
4 -> 6 ;
7 [label="petal length (cm) <= 4.75\ngini = 0.45\nsamples = 15\nvalue = [0, 15, 8]\nclass = versicolor", fillcolor="#a3f3c4"] ;
3 -> 7 ;
8 [label="gini = 0.0\nsamples = 8\nvalue = [0, 14, 0]\nclass = versicolor", fillcolor="#39e581"] ;
7 -> 8 ;
9 [label="sepal length (cm) <= 6.05\ngini = 0.2\nsamples = 7\nvalue = [0, 1, 8]\nclass = virginica", fillcolor="#9152e8"] ;
7 -> 9 ;
10 [label="petal width (cm) <= 1.55\ngini = 0.44\nsamples = 3\nvalue = [0, 1, 2]\nclass = virginica", fillcolor="#c09cf2"] ;
9 -> 10 ;
11 [label="gini = 0.0\nsamples = 1\nvalue = [0, 0, 1]\nclass = virginica", fillcolor="#8139e5"] ;
10 -> 11 ;
12 [label="petal length (cm) <= 4.95\ngini = 0.5\nsamples = 2\nvalue = [0, 1, 1]\nclass = versicolor", fillcolor="#ffffff"] ;
10 -> 12 ;
13 [label="gini = 0.0\nsamples = 1\nvalue = [0, 0, 1]\nclass = virginica", fillcolor="#8139e5"] ;
12 -> 13 ;
14 [label="gini = 0.0\nsamples = 1\nvalue = [0, 1, 0]\nclass = versicolor", fillcolor="#39e581"] ;
12 -> 14 ;
15 [label="gini = 0.0\nsamples = 4\nvalue = [0, 0, 6]\nclass = virginica", fillcolor="#8139e5"] ;
9 -> 15 ;
16 [label="petal width (cm) <= 1.75\ngini = 0.33\nsamples = 32\nvalue = [0, 11, 41]\nclass = virginica", fillcolor="#a36eec"] ;
2 -> 16 ;
17 [label="petal length (cm) <= 5.4\ngini = 0.26\nsamples = 8\nvalue = [0, 11, 2]\nclass = versicolor", fillcolor="#5dea98"] ;
16 -> 17 ;
18 [label="gini = 0.0\nsamples = 7\nvalue = [0, 11, 0]\nclass = versicolor", fillcolor="#39e581"] ;
17 -> 18 ;
19 [label="gini = 0.0\nsamples = 1\nvalue = [0, 0, 2]\nclass = virginica", fillcolor="#8139e5"] ;
17 -> 19 ;
20 [label="gini = 0.0\nsamples = 24\nvalue = [0, 0, 39]\nclass = virginica", fillcolor="#8139e5"] ;
16 -> 20 ;
}